digraph Tree {
node [shape=box] ;
0 [label="是否周末 <= 0.0\ngini = 0.4983\nsamples = 34\nvalue = [16, 18]"] ;
1 [label="是否有促销 <= 0.0\ngini = 0.455\nsamples = 20\nvalue = [13, 7]"] ;
0 -> 1 [labeldistance=2.5, labelangle=45, headlabel="True"] ;
2 [label="天气 <= 0.0\ngini = 0.2188\nsamples = 8\nvalue = [7, 1]"] ;
1 -> 2 ;
3 [label="gini = 0.0\nsamples = 4\nvalue = [4, 0]"] ;
2 -> 3 ;
4 [label="gini = 0.375\nsamples = 4\nvalue = [3, 1]"] ;
2 -> 4 ;
5 [label="天气 <= 0.0\ngini = 0.5\nsamples = 12\nvalue = [6, 6]"] ;
1 -> 5 ;
6 [label="gini = 0.48\nsamples = 5\nvalue = [3, 2]"] ;
5 -> 6 ;
7 [label="gini = 0.4898\nsamples = 7\nvalue = [3, 4]"] ;
5 -> 7 ;
8 [label="天气 <= 0.0\ngini = 0.3367\nsamples = 14\nvalue = [3, 11]"] ;
0 -> 8 [labeldistance=2.5, labelangle=-45, headlabel="False"] ;
9 [label="是否有促销 <= 0.0\ngini = 0.4688\nsamples = 8\nvalue = [3, 5]"] ;
8 -> 9 ;
10 [label="gini = 0.4444\nsamples = 3\nvalue = [2, 1]"] ;
9 -> 10 ;
11 [label="gini = 0.32\nsamples = 5\nvalue = [1, 4]"] ;
9 -> 11 ;
12 [label="gini = 0.0\nsamples = 6\nvalue = [0, 6]"] ;
8 -> 12 ;
}